digraph Tree {
node [shape=box, style="filled, rounded", color="black", fontname=helvetica] ;
edge [fontname=helvetica] ;
0 [label="quartos <= 0.5\ngini = 0.231\nsamples = 592\nvalue = [513, 79]\nclass = False", fillcolor="#e99457"] ;
1 [label="nota <= 0.5\ngini = 0.06\nsamples = 449\nvalue = [435, 14]\nclass = False", fillcolor="#e6853f"] ;
0 -> 1 [labeldistance=2.5, labelangle=45, headlabel="True"] ;
2 [label="andares <= 0.5\ngini = 0.007\nsamples = 266\nvalue = [265, 1]\nclass = False", fillcolor="#e5813a"] ;
1 -> 2 ;
3 [label="gini = 0.0\nsamples = 229\nvalue = [229, 0]\nclass = False", fillcolor="#e58139"] ;
2 -> 3 ;
4 [label="condicao <= 0.5\ngini = 0.053\nsamples = 37\nvalue = [36, 1]\nclass = False", fillcolor="#e6843e"] ;
2 -> 4 ;
5 [label="gini = 0.0\nsamples = 32\nvalue = [32, 0]\nclass = False", fillcolor="#e58139"] ;
4 -> 5 ;
6 [label="area_util15 <= 0.5\ngini = 0.32\nsamples = 5\nvalue = [4, 1]\nclass = False", fillcolor="#eca06a"] ;
4 -> 6 ;
7 [label="gini = 0.0\nsamples = 4\nvalue = [4, 0]\nclass = False", fillcolor="#e58139"] ;
6 -> 7 ;
8 [label="gini = 0.0\nsamples = 1\nvalue = [0, 1]\nclass = True", fillcolor="#399de5"] ;
6 -> 8 ;
9 [label="area_lote15 <= 0.5\ngini = 0.132\nsamples = 183\nvalue = [170, 13]\nclass = False", fillcolor="#e78b48"] ;
1 -> 9 ;
10 [label="condicao <= 0.5\ngini = 0.013\nsamples = 153\nvalue = [152, 1]\nclass = False", fillcolor="#e5823a"] ;
9 -> 10 ;
11 [label="gini = 0.0\nsamples = 148\nvalue = [148, 0]\nclass = False", fillcolor="#e58139"] ;
10 -> 11 ;
12 [label="andares <= 0.5\ngini = 0.32\nsamples = 5\nvalue = [4, 1]\nclass = False", fillcolor="#eca06a"] ;
10 -> 12 ;
13 [label="gini = 0.0\nsamples = 3\nvalue = [3, 0]\nclass = False", fillcolor="#e58139"] ;
12 -> 13 ;
14 [label="banheiros <= 0.5\ngini = 0.5\nsamples = 2\nvalue = [1, 1]\nclass = False", fillcolor="#ffffff"] ;
12 -> 14 ;
15 [label="gini = 0.0\nsamples = 1\nvalue = [1, 0]\nclass = False", fillcolor="#e58139"] ;
14 -> 15 ;
16 [label="gini = 0.0\nsamples = 1\nvalue = [0, 1]\nclass = True", fillcolor="#399de5"] ;
14 -> 16 ;
17 [label="area_util15 <= 0.5\ngini = 0.48\nsamples = 30\nvalue = [18, 12]\nclass = False", fillcolor="#f6d5bd"] ;
9 -> 17 ;
18 [label="condicao <= 0.5\ngini = 0.231\nsamples = 15\nvalue = [13, 2]\nclass = False", fillcolor="#e99457"] ;
17 -> 18 ;
19 [label="gini = 0.0\nsamples = 8\nvalue = [8, 0]\nclass = False", fillcolor="#e58139"] ;
18 -> 19 ;
20 [label="andares <= 0.5\ngini = 0.408\nsamples = 7\nvalue = [5, 2]\nclass = False", fillcolor="#efb388"] ;
18 -> 20 ;
21 [label="gini = 0.0\nsamples = 5\nvalue = [5, 0]\nclass = False", fillcolor="#e58139"] ;
20 -> 21 ;
22 [label="gini = 0.0\nsamples = 2\nvalue = [0, 2]\nclass = True", fillcolor="#399de5"] ;
20 -> 22 ;
23 [label="andares <= 0.5\ngini = 0.444\nsamples = 15\nvalue = [5, 10]\nclass = True", fillcolor="#9ccef2"] ;
17 -> 23 ;
24 [label="condicao <= 0.5\ngini = 0.375\nsamples = 4\nvalue = [3, 1]\nclass = False", fillcolor="#eeab7b"] ;
23 -> 24 ;
25 [label="gini = 0.0\nsamples = 3\nvalue = [3, 0]\nclass = False", fillcolor="#e58139"] ;
24 -> 25 ;
26 [label="gini = 0.0\nsamples = 1\nvalue = [0, 1]\nclass = True", fillcolor="#399de5"] ;
24 -> 26 ;
27 [label="banheiros <= 0.5\ngini = 0.298\nsamples = 11\nvalue = [2, 9]\nclass = True", fillcolor="#65b3eb"] ;
23 -> 27 ;
28 [label="condicao <= 0.5\ngini = 0.444\nsamples = 6\nvalue = [2, 4]\nclass = True", fillcolor="#9ccef2"] ;
27 -> 28 ;
29 [label="gini = 0.0\nsamples = 2\nvalue = [2, 0]\nclass = False", fillcolor="#e58139"] ;
28 -> 29 ;
30 [label="gini = 0.0\nsamples = 4\nvalue = [0, 4]\nclass = True", fillcolor="#399de5"] ;
28 -> 30 ;
31 [label="gini = 0.0\nsamples = 5\nvalue = [0, 5]\nclass = True", fillcolor="#399de5"] ;
27 -> 31 ;
32 [label="nota <= 0.5\ngini = 0.496\nsamples = 143\nvalue = [78, 65]\nclass = False", fillcolor="#fbeade"] ;
0 -> 32 [labeldistance=2.5, labelangle=-45, headlabel="False"] ;
33 [label="banheiros <= 0.5\ngini = 0.269\nsamples = 81\nvalue = [68, 13]\nclass = False", fillcolor="#ea995f"] ;
32 -> 33 ;
34 [label="gini = 0.0\nsamples = 37\nvalue = [37, 0]\nclass = False", fillcolor="#e58139"] ;
33 -> 34 ;
35 [label="condicao <= 0.5\ngini = 0.416\nsamples = 44\nvalue = [31, 13]\nclass = False", fillcolor="#f0b68c"] ;
33 -> 35 ;
36 [label="gini = 0.0\nsamples = 20\nvalue = [20, 0]\nclass = False", fillcolor="#e58139"] ;
35 -> 36 ;
37 [label="area_util15 <= 0.5\ngini = 0.497\nsamples = 24\nvalue = [11, 13]\nclass = True", fillcolor="#e1f0fb"] ;
35 -> 37 ;
38 [label="gini = 0.0\nsamples = 10\nvalue = [10, 0]\nclass = False", fillcolor="#e58139"] ;
37 -> 38 ;
39 [label="area_lote15 <= 0.5\ngini = 0.133\nsamples = 14\nvalue = [1, 13]\nclass = True", fillcolor="#48a5e7"] ;
37 -> 39 ;
40 [label="gini = 0.0\nsamples = 1\nvalue = [1, 0]\nclass = False", fillcolor="#e58139"] ;
39 -> 40 ;
41 [label="gini = 0.0\nsamples = 13\nvalue = [0, 13]\nclass = True", fillcolor="#399de5"] ;
39 -> 41 ;
42 [label="area_util15 <= 0.5\ngini = 0.271\nsamples = 62\nvalue = [10, 52]\nclass = True", fillcolor="#5fb0ea"] ;
32 -> 42 ;
43 [label="andares <= 0.5\ngini = 0.498\nsamples = 15\nvalue = [8, 7]\nclass = False", fillcolor="#fcefe6"] ;
42 -> 43 ;
44 [label="gini = 0.0\nsamples = 7\nvalue = [7, 0]\nclass = False", fillcolor="#e58139"] ;
43 -> 44 ;
45 [label="area_lote15 <= 0.5\ngini = 0.219\nsamples = 8\nvalue = [1, 7]\nclass = True", fillcolor="#55abe9"] ;
43 -> 45 ;
46 [label="gini = 0.0\nsamples = 1\nvalue = [1, 0]\nclass = False", fillcolor="#e58139"] ;
45 -> 46 ;
47 [label="gini = 0.0\nsamples = 7\nvalue = [0, 7]\nclass = True", fillcolor="#399de5"] ;
45 -> 47 ;
48 [label="banheiros <= 0.5\ngini = 0.081\nsamples = 47\nvalue = [2, 45]\nclass = True", fillcolor="#42a1e6"] ;
42 -> 48 ;
49 [label="condicao <= 0.5\ngini = 0.375\nsamples = 8\nvalue = [2, 6]\nclass = True", fillcolor="#7bbeee"] ;
48 -> 49 ;
50 [label="andares <= 0.5\ngini = 0.444\nsamples = 3\nvalue = [2, 1]\nclass = False", fillcolor="#f2c09c"] ;
49 -> 50 ;
51 [label="gini = 0.0\nsamples = 2\nvalue = [2, 0]\nclass = False", fillcolor="#e58139"] ;
50 -> 51 ;
52 [label="gini = 0.0\nsamples = 1\nvalue = [0, 1]\nclass = True", fillcolor="#399de5"] ;
50 -> 52 ;
53 [label="gini = 0.0\nsamples = 5\nvalue = [0, 5]\nclass = True", fillcolor="#399de5"] ;
49 -> 53 ;
54 [label="gini = 0.0\nsamples = 39\nvalue = [0, 39]\nclass = True", fillcolor="#399de5"] ;
48 -> 54 ;
}